digraph Tree {
node [shape=box, style="filled, rounded", color="black", fontname=helvetica] ;
edge [fontname=helvetica] ;
0 [label="Sex <= 0.5\ngini = 0.474\nsamples = 712\nvalue = [437, 275]\nclass = 1", fillcolor="#e581395f"] ;
1 [label="Age <= 13.5\ngini = 0.306\nsamples = 466\nvalue = [378, 88]\nclass = 1", fillcolor="#e58139c4"] ;
0 -> 1 [labeldistance=2.5, labelangle=45, headlabel="True"] ;
2 [label="SibSp <= 2.0\ngini = 0.473\nsamples = 26\nvalue = [10, 16]\nclass = 0", fillcolor="#399de560"] ;
1 -> 2 ;
3 [label="Parch <= 0.5\ngini = 0.117\nsamples = 16\nvalue = [1, 15]\nclass = 0", fillcolor="#399de5ee"] ;
2 -> 3 ;
4 [label="SibSp <= 0.5\ngini = 0.5\nsamples = 2\nvalue = [1, 1]\nclass = 1", fillcolor="#e5813900"] ;
3 -> 4 ;
5 [label="gini = 0.0\nsamples = 1\nvalue = [1, 0]\nclass = 1", fillcolor="#e58139ff"] ;
4 -> 5 ;
6 [label="gini = 0.0\nsamples = 1\nvalue = [0, 1]\nclass = 0", fillcolor="#399de5ff"] ;
4 -> 6 ;
7 [label="gini = 0.0\nsamples = 14\nvalue = [0, 14]\nclass = 0", fillcolor="#399de5ff"] ;
3 -> 7 ;
8 [label="Age <= 3.5\ngini = 0.18\nsamples = 10\nvalue = [9, 1]\nclass = 1", fillcolor="#e58139e3"] ;
2 -> 8 ;
9 [label="Age <= 2.5\ngini = 0.32\nsamples = 5\nvalue = [4, 1]\nclass = 1", fillcolor="#e58139bf"] ;
8 -> 9 ;
10 [label="gini = 0.0\nsamples = 4\nvalue = [4, 0]\nclass = 1", fillcolor="#e58139ff"] ;
9 -> 10 ;
11 [label="gini = 0.0\nsamples = 1\nvalue = [0, 1]\nclass = 0", fillcolor="#399de5ff"] ;
9 -> 11 ;
12 [label="gini = 0.0\nsamples = 5\nvalue = [5, 0]\nclass = 1", fillcolor="#e58139ff"] ;
8 -> 12 ;
13 [label="Fare <= 26.269\ngini = 0.274\nsamples = 440\nvalue = [368, 72]\nclass = 1", fillcolor="#e58139cd"] ;
1 -> 13 ;
14 [label="Age <= 45.25\ngini = 0.186\nsamples = 327\nvalue = [293, 34]\nclass = 1", fillcolor="#e58139e1"] ;
13 -> 14 ;
15 [label="Age <= 44.5\ngini = 0.198\nsamples = 306\nvalue = [272, 34]\nclass = 1", fillcolor="#e58139df"] ;
14 -> 15 ;
16 [label="Fare <= 7.91\ngini = 0.194\nsamples = 304\nvalue = [271, 33]\nclass = 1", fillcolor="#e58139e0"] ;
15 -> 16 ;
17 [label="Age <= 32.5\ngini = 0.151\nsamples = 146\nvalue = [134, 12]\nclass = 1", fillcolor="#e58139e8"] ;
16 -> 17 ;
18 [label="Age <= 31.5\ngini = 0.176\nsamples = 123\nvalue = [111, 12]\nclass = 1", fillcolor="#e58139e3"] ;
17 -> 18 ;
19 [label="Fare <= 7.798\ngini = 0.165\nsamples = 121\nvalue = [110, 11]\nclass = 1", fillcolor="#e58139e6"] ;
18 -> 19 ;
20 [label="Age <= 19.5\ngini = 0.206\nsamples = 86\nvalue = [76, 10]\nclass = 1", fillcolor="#e58139dd"] ;
19 -> 20 ;
21 [label="gini = 0.0\nsamples = 12\nvalue = [12, 0]\nclass = 1", fillcolor="#e58139ff"] ;
20 -> 21 ;
22 [label="Age <= 29.35\ngini = 0.234\nsamples = 74\nvalue = [64, 10]\nclass = 1", fillcolor="#e58139d7"] ;
20 -> 22 ;
23 [label="Fare <= 7.01\ngini = 0.334\nsamples = 33\nvalue = [26, 7]\nclass = 1", fillcolor="#e58139ba"] ;
22 -> 23 ;
24 [label="Age <= 22.5\ngini = 0.444\nsamples = 3\nvalue = [1, 2]\nclass = 0", fillcolor="#399de57f"] ;
23 -> 24 ;
25 [label="gini = 0.0\nsamples = 1\nvalue = [1, 0]\nclass = 1", fillcolor="#e58139ff"] ;
24 -> 25 ;
26 [label="gini = 0.0\nsamples = 2\nvalue = [0, 2]\nclass = 0", fillcolor="#399de5ff"] ;
24 -> 26 ;
27 [label="Age <= 20.25\ngini = 0.278\nsamples = 30\nvalue = [25, 5]\nclass = 1", fillcolor="#e58139cc"] ;
23 -> 27 ;
28 [label="gini = 0.0\nsamples = 1\nvalue = [0, 1]\nclass = 0", fillcolor="#399de5ff"] ;
27 -> 28 ;
29 [label="Fare <= 7.746\ngini = 0.238\nsamples = 29\nvalue = [25, 4]\nclass = 1", fillcolor="#e58139d6"] ;
27 -> 29 ;
30 [label="Fare <= 7.227\ngini = 0.095\nsamples = 20\nvalue = [19, 1]\nclass = 1", fillcolor="#e58139f2"] ;
29 -> 30 ;
31 [label="Age <= 23.0\ngini = 0.245\nsamples = 7\nvalue = [6, 1]\nclass = 1", fillcolor="#e58139d4"] ;
30 -> 31 ;
32 [label="Fare <= 7.175\ngini = 0.5\nsamples = 2\nvalue = [1, 1]\nclass = 1", fillcolor="#e5813900"] ;
31 -> 32 ;
33 [label="gini = 0.0\nsamples = 1\nvalue = [1, 0]\nclass = 1", fillcolor="#e58139ff"] ;
32 -> 33 ;
34 [label="gini = 0.0\nsamples = 1\nvalue = [0, 1]\nclass = 0", fillcolor="#399de5ff"] ;
32 -> 34 ;
35 [label="gini = 0.0\nsamples = 5\nvalue = [5, 0]\nclass = 1", fillcolor="#e58139ff"] ;
31 -> 35 ;
36 [label="gini = 0.0\nsamples = 13\nvalue = [13, 0]\nclass = 1", fillcolor="#e58139ff"] ;
30 -> 36 ;
37 [label="SibSp <= 0.5\ngini = 0.444\nsamples = 9\nvalue = [6, 3]\nclass = 1", fillcolor="#e581397f"] ;
29 -> 37 ;
38 [label="Fare <= 7.763\ngini = 0.375\nsamples = 8\nvalue = [6, 2]\nclass = 1", fillcolor="#e58139aa"] ;
37 -> 38 ;
39 [label="gini = 0.0\nsamples = 1\nvalue = [0, 1]\nclass = 0", fillcolor="#399de5ff"] ;
38 -> 39 ;
40 [label="Age <= 21.5\ngini = 0.245\nsamples = 7\nvalue = [6, 1]\nclass = 1", fillcolor="#e58139d4"] ;
38 -> 40 ;
41 [label="Fare <= 7.785\ngini = 0.5\nsamples = 2\nvalue = [1, 1]\nclass = 1", fillcolor="#e5813900"] ;
40 -> 41 ;
42 [label="gini = 0.0\nsamples = 1\nvalue = [1, 0]\nclass = 1", fillcolor="#e58139ff"] ;
41 -> 42 ;
43 [label="gini = 0.0\nsamples = 1\nvalue = [0, 1]\nclass = 0", fillcolor="#399de5ff"] ;
41 -> 43 ;
44 [label="gini = 0.0\nsamples = 5\nvalue = [5, 0]\nclass = 1", fillcolor="#e58139ff"] ;
40 -> 44 ;
45 [label="gini = 0.0\nsamples = 1\nvalue = [0, 1]\nclass = 0", fillcolor="#399de5ff"] ;
37 -> 45 ;
46 [label="Fare <= 7.763\ngini = 0.136\nsamples = 41\nvalue = [38, 3]\nclass = 1", fillcolor="#e58139eb"] ;
22 -> 46 ;
47 [label="Fare <= 7.227\ngini = 0.1\nsamples = 38\nvalue = [36, 2]\nclass = 1", fillcolor="#e58139f1"] ;
46 -> 47 ;
48 [label="gini = 0.0\nsamples = 15\nvalue = [15, 0]\nclass = 1", fillcolor="#e58139ff"] ;
47 -> 48 ;
49 [label="Fare <= 7.24\ngini = 0.159\nsamples = 23\nvalue = [21, 2]\nclass = 1", fillcolor="#e58139e7"] ;
47 -> 49 ;
50 [label="gini = 0.32\nsamples = 5\nvalue = [4, 1]\nclass = 1", fillcolor="#e58139bf"] ;
49 -> 50 ;
51 [label="Fare <= 7.744\ngini = 0.105\nsamples = 18\nvalue = [17, 1]\nclass = 1", fillcolor="#e58139f0"] ;
49 -> 51 ;
52 [label="gini = 0.0\nsamples = 8\nvalue = [8, 0]\nclass = 1", fillcolor="#e58139ff"] ;
51 -> 52 ;
53 [label="Age <= 30.35\ngini = 0.18\nsamples = 10\nvalue = [9, 1]\nclass = 1", fillcolor="#e58139e3"] ;
51 -> 53 ;
54 [label="SibSp <= 0.5\ngini = 0.198\nsamples = 9\nvalue = [8, 1]\nclass = 1", fillcolor="#e58139df"] ;
53 -> 54 ;
55 [label="gini = 0.219\nsamples = 8\nvalue = [7, 1]\nclass = 1", fillcolor="#e58139db"] ;
54 -> 55 ;
56 [label="gini = 0.0\nsamples = 1\nvalue = [1, 0]\nclass = 1", fillcolor="#e58139ff"] ;
54 -> 56 ;
57 [label="gini = 0.0\nsamples = 1\nvalue = [1, 0]\nclass = 1", fillcolor="#e58139ff"] ;
53 -> 57 ;
58 [label="Age <= 30.35\ngini = 0.444\nsamples = 3\nvalue = [2, 1]\nclass = 1", fillcolor="#e581397f"] ;
46 -> 58 ;
59 [label="gini = 0.5\nsamples = 2\nvalue = [1, 1]\nclass = 1", fillcolor="#e5813900"] ;
58 -> 59 ;
60 [label="gini = 0.0\nsamples = 1\nvalue = [1, 0]\nclass = 1", fillcolor="#e58139ff"] ;
58 -> 60 ;
61 [label="Age <= 28.5\ngini = 0.056\nsamples = 35\nvalue = [34, 1]\nclass = 1", fillcolor="#e58139f8"] ;
19 -> 61 ;
62 [label="gini = 0.0\nsamples = 19\nvalue = [19, 0]\nclass = 1", fillcolor="#e58139ff"] ;
61 -> 62 ;
63 [label="Age <= 29.35\ngini = 0.117\nsamples = 16\nvalue = [15, 1]\nclass = 1", fillcolor="#e58139ee"] ;
61 -> 63 ;
64 [label="Fare <= 7.885\ngini = 0.5\nsamples = 2\nvalue = [1, 1]\nclass = 1", fillcolor="#e5813900"] ;
63 -> 64 ;
65 [label="gini = 0.0\nsamples = 1\nvalue = [1, 0]\nclass = 1", fillcolor="#e58139ff"] ;
64 -> 65 ;
66 [label="gini = 0.0\nsamples = 1\nvalue = [0, 1]\nclass = 0", fillcolor="#399de5ff"] ;
64 -> 66 ;
67 [label="gini = 0.0\nsamples = 14\nvalue = [14, 0]\nclass = 1", fillcolor="#e58139ff"] ;
63 -> 67 ;
68 [label="Fare <= 7.802\ngini = 0.5\nsamples = 2\nvalue = [1, 1]\nclass = 1", fillcolor="#e5813900"] ;
18 -> 68 ;
69 [label="gini = 0.0\nsamples = 1\nvalue = [1, 0]\nclass = 1", fillcolor="#e58139ff"] ;
68 -> 69 ;
70 [label="gini = 0.0\nsamples = 1\nvalue = [0, 1]\nclass = 0", fillcolor="#399de5ff"] ;
68 -> 70 ;
71 [label="gini = 0.0\nsamples = 23\nvalue = [23, 0]\nclass = 1", fillcolor="#e58139ff"] ;
17 -> 71 ;
72 [label="Fare <= 7.988\ngini = 0.23\nsamples = 158\nvalue = [137, 21]\nclass = 1", fillcolor="#e58139d8"] ;
16 -> 72 ;
73 [label="SibSp <= 1.5\ngini = 0.486\nsamples = 12\nvalue = [7, 5]\nclass = 1", fillcolor="#e5813949"] ;
72 -> 73 ;
74 [label="Age <= 26.0\ngini = 0.5\nsamples = 10\nvalue = [5, 5]\nclass = 1", fillcolor="#e5813900"] ;
73 -> 74 ;
75 [label="SibSp <= 0.5\ngini = 0.375\nsamples = 4\nvalue = [3, 1]\nclass = 1", fillcolor="#e58139aa"] ;
74 -> 75 ;
76 [label="gini = 0.0\nsamples = 3\nvalue = [3, 0]\nclass = 1", fillcolor="#e58139ff"] ;
75 -> 76 ;
77 [label="gini = 0.0\nsamples = 1\nvalue = [0, 1]\nclass = 0", fillcolor="#399de5ff"] ;
75 -> 77 ;
78 [label="Age <= 31.5\ngini = 0.444\nsamples = 6\nvalue = [2, 4]\nclass = 0", fillcolor="#399de57f"] ;
74 -> 78 ;
79 [label="gini = 0.0\nsamples = 1\nvalue = [0, 1]\nclass = 0", fillcolor="#399de5ff"] ;
78 -> 79 ;
80 [label="Age <= 41.5\ngini = 0.48\nsamples = 5\nvalue = [2, 3]\nclass = 0", fillcolor="#399de555"] ;
78 -> 80 ;
81 [label="Age <= 35.5\ngini = 0.5\nsamples = 4\nvalue = [2, 2]\nclass = 1", fillcolor="#e5813900"] ;
80 -> 81 ;
82 [label="gini = 0.5\nsamples = 2\nvalue = [1, 1]\nclass = 1", fillcolor="#e5813900"] ;
81 -> 82 ;
83 [label="gini = 0.5\nsamples = 2\nvalue = [1, 1]\nclass = 1", fillcolor="#e5813900"] ;
81 -> 83 ;
84 [label="gini = 0.0\nsamples = 1\nvalue = [0, 1]\nclass = 0", fillcolor="#399de5ff"] ;
80 -> 84 ;
85 [label="gini = 0.0\nsamples = 2\nvalue = [2, 0]\nclass = 1", fillcolor="#e58139ff"] ;
73 -> 85 ;
86 [label="Age <= 34.5\ngini = 0.195\nsamples = 146\nvalue = [130, 16]\nclass = 1", fillcolor="#e58139e0"] ;
72 -> 86 ;
87 [label="Age <= 31.5\ngini = 0.216\nsamples = 122\nvalue = [107, 15]\nclass = 1", fillcolor="#e58139db"] ;
86 -> 87 ;
88 [label="Parch <= 0.5\ngini = 0.196\nsamples = 109\nvalue = [97, 12]\nclass = 1", fillcolor="#e58139df"] ;
87 -> 88 ;
89 [label="SibSp <= 1.5\ngini = 0.177\nsamples = 102\nvalue = [92, 10]\nclass = 1", fillcolor="#e58139e3"] ;
88 -> 89 ;
90 [label="SibSp <= 0.5\ngini = 0.167\nsamples = 98\nvalue = [89, 9]\nclass = 1", fillcolor="#e58139e5"] ;
89 -> 90 ;
91 [label="Age <= 29.85\ngini = 0.187\nsamples = 86\nvalue = [77, 9]\nclass = 1", fillcolor="#e58139e1"] ;
90 -> 91 ;
92 [label="Age <= 25.5\ngini = 0.204\nsamples = 78\nvalue = [69, 9]\nclass = 1", fillcolor="#e58139de"] ;
91 -> 92 ;
93 [label="Fare <= 8.104\ngini = 0.136\nsamples = 41\nvalue = [38, 3]\nclass = 1", fillcolor="#e58139eb"] ;
92 -> 93 ;
94 [label="Age <= 18.5\ngini = 0.346\nsamples = 9\nvalue = [7, 2]\nclass = 1", fillcolor="#e58139b6"] ;
93 -> 94 ;
95 [label="Age <= 17.0\ngini = 0.444\nsamples = 3\nvalue = [1, 2]\nclass = 0", fillcolor="#399de57f"] ;
94 -> 95 ;
96 [label="gini = 0.5\nsamples = 2\nvalue = [1, 1]\nclass = 1", fillcolor="#e5813900"] ;
95 -> 96 ;
97 [label="gini = 0.0\nsamples = 1\nvalue = [0, 1]\nclass = 0", fillcolor="#399de5ff"] ;
95 -> 97 ;
98 [label="gini = 0.0\nsamples = 6\nvalue = [6, 0]\nclass = 1", fillcolor="#e58139ff"] ;
94 -> 98 ;
99 [label="Age <= 19.5\ngini = 0.061\nsamples = 32\nvalue = [31, 1]\nclass = 1", fillcolor="#e58139f7"] ;
93 -> 99 ;
100 [label="Age <= 18.5\ngini = 0.124\nsamples = 15\nvalue = [14, 1]\nclass = 1", fillcolor="#e58139ed"] ;
99 -> 100 ;
101 [label="gini = 0.0\nsamples = 9\nvalue = [9, 0]\nclass = 1", fillcolor="#e58139ff"] ;
100 -> 101 ;
102 [label="Pclass <= 2.5\ngini = 0.278\nsamples = 6\nvalue = [5, 1]\nclass = 1", fillcolor="#e58139cc"] ;
100 -> 102 ;
103 [label="Fare <= 11.75\ngini = 0.444\nsamples = 3\nvalue = [2, 1]\nclass = 1", fillcolor="#e581397f"] ;
102 -> 103 ;
104 [label="gini = 0.5\nsamples = 2\nvalue = [1, 1]\nclass = 1", fillcolor="#e5813900"] ;
103 -> 104 ;
105 [label="gini = 0.0\nsamples = 1\nvalue = [1, 0]\nclass = 1", fillcolor="#e58139ff"] ;
103 -> 105 ;
106 [label="gini = 0.0\nsamples = 3\nvalue = [3, 0]\nclass = 1", fillcolor="#e58139ff"] ;
102 -> 106 ;
107 [label="gini = 0.0\nsamples = 17\nvalue = [17, 0]\nclass = 1", fillcolor="#e58139ff"] ;
99 -> 107 ;
108 [label="Fare <= 8.081\ngini = 0.272\nsamples = 37\nvalue = [31, 6]\nclass = 1", fillcolor="#e58139ce"] ;
92 -> 108 ;
109 [label="gini = 0.0\nsamples = 12\nvalue = [12, 0]\nclass = 1", fillcolor="#e58139ff"] ;
108 -> 109 ;
110 [label="Fare <= 8.285\ngini = 0.365\nsamples = 25\nvalue = [19, 6]\nclass = 1", fillcolor="#e58139ae"] ;
108 -> 110 ;
111 [label="gini = 0.0\nsamples = 1\nvalue = [0, 1]\nclass = 0", fillcolor="#399de5ff"] ;
110 -> 111 ;
112 [label="Fare <= 20.656\ngini = 0.33\nsamples = 24\nvalue = [19, 5]\nclass = 1", fillcolor="#e58139bc"] ;
110 -> 112 ;
113 [label="Fare <= 16.644\ngini = 0.388\nsamples = 19\nvalue = [14, 5]\nclass = 1", fillcolor="#e58139a4"] ;
112 -> 113 ;
114 [label="Fare <= 14.16\ngini = 0.346\nsamples = 18\nvalue = [14, 4]\nclass = 1", fillcolor="#e58139b6"] ;
113 -> 114 ;
115 [label="Fare <= 13.681\ngini = 0.391\nsamples = 15\nvalue = [11, 4]\nclass = 1", fillcolor="#e58139a2"] ;
114 -> 115 ;
116 [label="Age <= 28.5\ngini = 0.337\nsamples = 14\nvalue = [11, 3]\nclass = 1", fillcolor="#e58139b9"] ;
115 -> 116 ;
117 [label="Fare <= 9.081\ngini = 0.219\nsamples = 8\nvalue = [7, 1]\nclass = 1", fillcolor="#e58139db"] ;
116 -> 117 ;
118 [label="gini = 0.0\nsamples = 1\nvalue = [0, 1]\nclass = 0", fillcolor="#399de5ff"] ;
117 -> 118 ;
119 [label="gini = 0.0\nsamples = 7\nvalue = [7, 0]\nclass = 1", fillcolor="#e58139ff"] ;
117 -> 119 ;
120 [label="Fare <= 9.492\ngini = 0.444\nsamples = 6\nvalue = [4, 2]\nclass = 1", fillcolor="#e581397f"] ;
116 -> 120 ;
121 [label="gini = 0.0\nsamples = 3\nvalue = [3, 0]\nclass = 1", fillcolor="#e58139ff"] ;
120 -> 121 ;
122 [label="Pclass <= 2.5\ngini = 0.444\nsamples = 3\nvalue = [1, 2]\nclass = 0", fillcolor="#399de57f"] ;
120 -> 122 ;
123 [label="gini = 0.0\nsamples = 1\nvalue = [0, 1]\nclass = 0", fillcolor="#399de5ff"] ;
122 -> 123 ;
124 [label="Age <= 29.35\ngini = 0.5\nsamples = 2\nvalue = [1, 1]\nclass = 1", fillcolor="#e5813900"] ;
122 -> 124 ;
125 [label="gini = 0.0\nsamples = 1\nvalue = [0, 1]\nclass = 0", fillcolor="#399de5ff"] ;
124 -> 125 ;
126 [label="gini = 0.0\nsamples = 1\nvalue = [1, 0]\nclass = 1", fillcolor="#e58139ff"] ;
124 -> 126 ;
127 [label="gini = 0.0\nsamples = 1\nvalue = [0, 1]\nclass = 0", fillcolor="#399de5ff"] ;
115 -> 127 ;
128 [label="gini = 0.0\nsamples = 3\nvalue = [3, 0]\nclass = 1", fillcolor="#e58139ff"] ;
114 -> 128 ;
129 [label="gini = 0.0\nsamples = 1\nvalue = [0, 1]\nclass = 0", fillcolor="#399de5ff"] ;
113 -> 129 ;
130 [label="gini = 0.0\nsamples = 5\nvalue = [5, 0]\nclass = 1", fillcolor="#e58139ff"] ;
112 -> 130 ;
131 [label="gini = 0.0\nsamples = 8\nvalue = [8, 0]\nclass = 1", fillcolor="#e58139ff"] ;
91 -> 131 ;
132 [label="gini = 0.0\nsamples = 12\nvalue = [12, 0]\nclass = 1", fillcolor="#e58139ff"] ;
90 -> 132 ;
133 [label="Age <= 26.85\ngini = 0.375\nsamples = 4\nvalue = [3, 1]\nclass = 1", fillcolor="#e58139aa"] ;
89 -> 133 ;
134 [label="gini = 0.0\nsamples = 2\nvalue = [2, 0]\nclass = 1", fillcolor="#e58139ff"] ;
133 -> 134 ;
135 [label="Fare <= 22.465\ngini = 0.5\nsamples = 2\nvalue = [1, 1]\nclass = 1", fillcolor="#e5813900"] ;
133 -> 135 ;
136 [label="gini = 0.0\nsamples = 1\nvalue = [1, 0]\nclass = 1", fillcolor="#e58139ff"] ;
135 -> 136 ;
137 [label="gini = 0.0\nsamples = 1\nvalue = [0, 1]\nclass = 0", fillcolor="#399de5ff"] ;
135 -> 137 ;
138 [label="Fare <= 17.977\ngini = 0.408\nsamples = 7\nvalue = [5, 2]\nclass = 1", fillcolor="#e5813999"] ;
88 -> 138 ;
139 [label="Fare <= 13.373\ngini = 0.444\nsamples = 3\nvalue = [1, 2]\nclass = 0", fillcolor="#399de57f"] ;
138 -> 139 ;
140 [label="gini = 0.0\nsamples = 1\nvalue = [1, 0]\nclass = 1", fillcolor="#e58139ff"] ;
139 -> 140 ;
141 [label="gini = 0.0\nsamples = 2\nvalue = [0, 2]\nclass = 0", fillcolor="#399de5ff"] ;
139 -> 141 ;
142 [label="gini = 0.0\nsamples = 4\nvalue = [4, 0]\nclass = 1", fillcolor="#e58139ff"] ;
138 -> 142 ;
143 [label="Age <= 32.5\ngini = 0.355\nsamples = 13\nvalue = [10, 3]\nclass = 1", fillcolor="#e58139b3"] ;
87 -> 143 ;
144 [label="SibSp <= 0.5\ngini = 0.444\nsamples = 3\nvalue = [1, 2]\nclass = 0", fillcolor="#399de57f"] ;
143 -> 144 ;
145 [label="gini = 0.0\nsamples = 1\nvalue = [0, 1]\nclass = 0", fillcolor="#399de5ff"] ;
144 -> 145 ;
146 [label="Pclass <= 2.5\ngini = 0.5\nsamples = 2\nvalue = [1, 1]\nclass = 1", fillcolor="#e5813900"] ;
144 -> 146 ;
147 [label="gini = 0.0\nsamples = 1\nvalue = [0, 1]\nclass = 0", fillcolor="#399de5ff"] ;
146 -> 147 ;
148 [label="gini = 0.0\nsamples = 1\nvalue = [1, 0]\nclass = 1", fillcolor="#e58139ff"] ;
146 -> 148 ;
149 [label="Pclass <= 2.5\ngini = 0.18\nsamples = 10\nvalue = [9, 1]\nclass = 1", fillcolor="#e58139e3"] ;
143 -> 149 ;
150 [label="SibSp <= 0.5\ngini = 0.278\nsamples = 6\nvalue = [5, 1]\nclass = 1", fillcolor="#e58139cc"] ;
149 -> 150 ;
151 [label="Fare <= 12.637\ngini = 0.375\nsamples = 4\nvalue = [3, 1]\nclass = 1", fillcolor="#e58139aa"] ;
150 -> 151 ;
152 [label="gini = 0.0\nsamples = 1\nvalue = [1, 0]\nclass = 1", fillcolor="#e58139ff"] ;
151 -> 152 ;
153 [label="gini = 0.444\nsamples = 3\nvalue = [2, 1]\nclass = 1", fillcolor="#e581397f"] ;
151 -> 153 ;
154 [label="gini = 0.0\nsamples = 2\nvalue = [2, 0]\nclass = 1", fillcolor="#e58139ff"] ;
150 -> 154 ;
155 [label="gini = 0.0\nsamples = 4\nvalue = [4, 0]\nclass = 1", fillcolor="#e58139ff"] ;
149 -> 155 ;
156 [label="Age <= 41.5\ngini = 0.08\nsamples = 24\nvalue = [23, 1]\nclass = 1", fillcolor="#e58139f4"] ;
86 -> 156 ;
157 [label="gini = 0.0\nsamples = 15\nvalue = [15, 0]\nclass = 1", fillcolor="#e58139ff"] ;
156 -> 157 ;
158 [label="Pclass <= 2.5\ngini = 0.198\nsamples = 9\nvalue = [8, 1]\nclass = 1", fillcolor="#e58139df"] ;
156 -> 158 ;
159 [label="SibSp <= 0.5\ngini = 0.375\nsamples = 4\nvalue = [3, 1]\nclass = 1", fillcolor="#e58139aa"] ;
158 -> 159 ;
160 [label="gini = 0.5\nsamples = 2\nvalue = [1, 1]\nclass = 1", fillcolor="#e5813900"] ;
159 -> 160 ;
161 [label="gini = 0.0\nsamples = 2\nvalue = [2, 0]\nclass = 1", fillcolor="#e58139ff"] ;
159 -> 161 ;
162 [label="gini = 0.0\nsamples = 5\nvalue = [5, 0]\nclass = 1", fillcolor="#e58139ff"] ;
158 -> 162 ;
163 [label="Fare <= 7.513\ngini = 0.5\nsamples = 2\nvalue = [1, 1]\nclass = 1", fillcolor="#e5813900"] ;
15 -> 163 ;
164 [label="gini = 0.0\nsamples = 1\nvalue = [1, 0]\nclass = 1", fillcolor="#e58139ff"] ;
163 -> 164 ;
165 [label="gini = 0.0\nsamples = 1\nvalue = [0, 1]\nclass = 0", fillcolor="#399de5ff"] ;
163 -> 165 ;
166 [label="gini = 0.0\nsamples = 21\nvalue = [21, 0]\nclass = 1", fillcolor="#e58139ff"] ;
14 -> 166 ;
167 [label="Fare <= 26.469\ngini = 0.446\nsamples = 113\nvalue = [75, 38]\nclass = 1", fillcolor="#e581397e"] ;
13 -> 167 ;
168 [label="gini = 0.0\nsamples = 4\nvalue = [0, 4]\nclass = 0", fillcolor="#399de5ff"] ;
167 -> 168 ;
169 [label="Parch <= 0.5\ngini = 0.429\nsamples = 109\nvalue = [75, 34]\nclass = 1", fillcolor="#e581398b"] ;
167 -> 169 ;
170 [label="Age <= 53.0\ngini = 0.468\nsamples = 83\nvalue = [52, 31]\nclass = 1", fillcolor="#e5813967"] ;
169 -> 170 ;
171 [label="Fare <= 26.775\ngini = 0.49\nsamples = 70\nvalue = [40, 30]\nclass = 1", fillcolor="#e5813940"] ;
170 -> 171 ;
172 [label="Age <= 40.0\ngini = 0.245\nsamples = 7\nvalue = [1, 6]\nclass = 0", fillcolor="#399de5d4"] ;
171 -> 172 ;
173 [label="gini = 0.0\nsamples = 4\nvalue = [0, 4]\nclass = 0", fillcolor="#399de5ff"] ;
172 -> 173 ;
174 [label="Age <= 46.5\ngini = 0.444\nsamples = 3\nvalue = [1, 2]\nclass = 0", fillcolor="#399de57f"] ;
172 -> 174 ;
175 [label="gini = 0.5\nsamples = 2\nvalue = [1, 1]\nclass = 1", fillcolor="#e5813900"] ;
174 -> 175 ;
176 [label="gini = 0.0\nsamples = 1\nvalue = [0, 1]\nclass = 0", fillcolor="#399de5ff"] ;
174 -> 176 ;
177 [label="Age <= 47.5\ngini = 0.472\nsamples = 63\nvalue = [39, 24]\nclass = 1", fillcolor="#e5813962"] ;
171 -> 177 ;
178 [label="Age <= 24.5\ngini = 0.44\nsamples = 55\nvalue = [37, 18]\nclass = 1", fillcolor="#e5813983"] ;
177 -> 178 ;
179 [label="gini = 0.0\nsamples = 7\nvalue = [7, 0]\nclass = 1", fillcolor="#e58139ff"] ;
178 -> 179 ;
180 [label="Age <= 27.5\ngini = 0.469\nsamples = 48\nvalue = [30, 18]\nclass = 1", fillcolor="#e5813966"] ;
178 -> 180 ;
181 [label="gini = 0.0\nsamples = 5\nvalue = [0, 5]\nclass = 0", fillcolor="#399de5ff"] ;
180 -> 181 ;
182 [label="Fare <= 28.725\ngini = 0.422\nsamples = 43\nvalue = [30, 13]\nclass = 1", fillcolor="#e5813991"] ;
180 -> 182 ;
183 [label="gini = 0.0\nsamples = 6\nvalue = [6, 0]\nclass = 1", fillcolor="#e58139ff"] ;
182 -> 183 ;
184 [label="Age <= 43.0\ngini = 0.456\nsamples = 37\nvalue = [24, 13]\nclass = 1", fillcolor="#e5813975"] ;
182 -> 184 ;
185 [label="Fare <= 37.813\ngini = 0.487\nsamples = 31\nvalue = [18, 13]\nclass = 1", fillcolor="#e5813947"] ;
184 -> 185 ;
186 [label="Fare <= 35.25\ngini = 0.444\nsamples = 9\nvalue = [3, 6]\nclass = 0", fillcolor="#399de57f"] ;
185 -> 186 ;
187 [label="Age <= 29.35\ngini = 0.49\nsamples = 7\nvalue = [3, 4]\nclass = 0", fillcolor="#399de540"] ;
186 -> 187 ;
188 [label="gini = 0.0\nsamples = 1\nvalue = [1, 0]\nclass = 1", fillcolor="#e58139ff"] ;
187 -> 188 ;
189 [label="Fare <= 30.75\ngini = 0.444\nsamples = 6\nvalue = [2, 4]\nclass = 0", fillcolor="#399de57f"] ;
187 -> 189 ;
190 [label="gini = 0.0\nsamples = 3\nvalue = [0, 3]\nclass = 0", fillcolor="#399de5ff"] ;
189 -> 190 ;
191 [label="Age <= 34.85\ngini = 0.444\nsamples = 3\nvalue = [2, 1]\nclass = 1", fillcolor="#e581397f"] ;
189 -> 191 ;
192 [label="gini = 0.0\nsamples = 2\nvalue = [2, 0]\nclass = 1", fillcolor="#e58139ff"] ;
191 -> 192 ;
193 [label="gini = 0.0\nsamples = 1\nvalue = [0, 1]\nclass = 0", fillcolor="#399de5ff"] ;
191 -> 193 ;
194 [label="gini = 0.0\nsamples = 2\nvalue = [0, 2]\nclass = 0", fillcolor="#399de5ff"] ;
186 -> 194 ;
195 [label="Fare <= 52.277\ngini = 0.434\nsamples = 22\nvalue = [15, 7]\nclass = 1", fillcolor="#e5813988"] ;
185 -> 195 ;
196 [label="gini = 0.0\nsamples = 7\nvalue = [7, 0]\nclass = 1", fillcolor="#e58139ff"] ;
195 -> 196 ;
197 [label="Age <= 30.35\ngini = 0.498\nsamples = 15\nvalue = [8, 7]\nclass = 1", fillcolor="#e5813920"] ;
195 -> 197 ;
198 [label="Pclass <= 2.0\ngini = 0.245\nsamples = 7\nvalue = [6, 1]\nclass = 1", fillcolor="#e58139d4"] ;
197 -> 198 ;
199 [label="gini = 0.0\nsamples = 4\nvalue = [4, 0]\nclass = 1", fillcolor="#e58139ff"] ;
198 -> 199 ;
200 [label="Age <= 28.85\ngini = 0.444\nsamples = 3\nvalue = [2, 1]\nclass = 1", fillcolor="#e581397f"] ;
198 -> 200 ;
201 [label="gini = 0.0\nsamples = 1\nvalue = [1, 0]\nclass = 1", fillcolor="#e58139ff"] ;
200 -> 201 ;
202 [label="gini = 0.5\nsamples = 2\nvalue = [1, 1]\nclass = 1", fillcolor="#e5813900"] ;
200 -> 202 ;
203 [label="SibSp <= 1.5\ngini = 0.375\nsamples = 8\nvalue = [2, 6]\nclass = 0", fillcolor="#399de5aa"] ;
197 -> 203 ;
204 [label="Fare <= 54.798\ngini = 0.245\nsamples = 7\nvalue = [1, 6]\nclass = 0", fillcolor="#399de5d4"] ;
203 -> 204 ;
205 [label="Fare <= 52.827\ngini = 0.5\nsamples = 2\nvalue = [1, 1]\nclass = 1", fillcolor="#e5813900"] ;
204 -> 205 ;
206 [label="gini = 0.0\nsamples = 1\nvalue = [0, 1]\nclass = 0", fillcolor="#399de5ff"] ;
205 -> 206 ;
207 [label="gini = 0.0\nsamples = 1\nvalue = [1, 0]\nclass = 1", fillcolor="#e58139ff"] ;
205 -> 207 ;
208 [label="gini = 0.0\nsamples = 5\nvalue = [0, 5]\nclass = 0", fillcolor="#399de5ff"] ;
204 -> 208 ;
209 [label="gini = 0.0\nsamples = 1\nvalue = [1, 0]\nclass = 1", fillcolor="#e58139ff"] ;
203 -> 209 ;
210 [label="gini = 0.0\nsamples = 6\nvalue = [6, 0]\nclass = 1", fillcolor="#e58139ff"] ;
184 -> 210 ;
211 [label="Age <= 49.5\ngini = 0.375\nsamples = 8\nvalue = [2, 6]\nclass = 0", fillcolor="#399de5aa"] ;
177 -> 211 ;
212 [label="gini = 0.0\nsamples = 4\nvalue = [0, 4]\nclass = 0", fillcolor="#399de5ff"] ;
211 -> 212 ;
213 [label="Fare <= 43.2\ngini = 0.5\nsamples = 4\nvalue = [2, 2]\nclass = 1", fillcolor="#e5813900"] ;
211 -> 213 ;
214 [label="gini = 0.0\nsamples = 1\nvalue = [0, 1]\nclass = 0", fillcolor="#399de5ff"] ;
213 -> 214 ;
215 [label="SibSp <= 1.5\ngini = 0.444\nsamples = 3\nvalue = [2, 1]\nclass = 1", fillcolor="#e581397f"] ;
213 -> 215 ;
216 [label="gini = 0.0\nsamples = 2\nvalue = [2, 0]\nclass = 1", fillcolor="#e58139ff"] ;
215 -> 216 ;
217 [label="gini = 0.0\nsamples = 1\nvalue = [0, 1]\nclass = 0", fillcolor="#399de5ff"] ;
215 -> 217 ;
218 [label="Age <= 75.5\ngini = 0.142\nsamples = 13\nvalue = [12, 1]\nclass = 1", fillcolor="#e58139ea"] ;
170 -> 218 ;
219 [label="gini = 0.0\nsamples = 12\nvalue = [12, 0]\nclass = 1", fillcolor="#e58139ff"] ;
218 -> 219 ;
220 [label="gini = 0.0\nsamples = 1\nvalue = [0, 1]\nclass = 0", fillcolor="#399de5ff"] ;
218 -> 220 ;
221 [label="Fare <= 387.665\ngini = 0.204\nsamples = 26\nvalue = [23, 3]\nclass = 1", fillcolor="#e58139de"] ;
169 -> 221 ;
222 [label="Age <= 24.0\ngini = 0.147\nsamples = 25\nvalue = [23, 2]\nclass = 1", fillcolor="#e58139e9"] ;
221 -> 222 ;
223 [label="SibSp <= 0.5\ngini = 0.444\nsamples = 6\nvalue = [4, 2]\nclass = 1", fillcolor="#e581397f"] ;
222 -> 223 ;
224 [label="Fare <= 70.323\ngini = 0.444\nsamples = 3\nvalue = [1, 2]\nclass = 0", fillcolor="#399de57f"] ;
223 -> 224 ;
225 [label="gini = 0.0\nsamples = 1\nvalue = [0, 1]\nclass = 0", fillcolor="#399de5ff"] ;
224 -> 225 ;
226 [label="Age <= 19.0\ngini = 0.5\nsamples = 2\nvalue = [1, 1]\nclass = 1", fillcolor="#e5813900"] ;
224 -> 226 ;
227 [label="gini = 0.0\nsamples = 1\nvalue = [0, 1]\nclass = 0", fillcolor="#399de5ff"] ;
226 -> 227 ;
228 [label="gini = 0.0\nsamples = 1\nvalue = [1, 0]\nclass = 1", fillcolor="#e58139ff"] ;
226 -> 228 ;
229 [label="gini = 0.0\nsamples = 3\nvalue = [3, 0]\nclass = 1", fillcolor="#e58139ff"] ;
223 -> 229 ;
230 [label="gini = 0.0\nsamples = 19\nvalue = [19, 0]\nclass = 1", fillcolor="#e58139ff"] ;
222 -> 230 ;
231 [label="gini = 0.0\nsamples = 1\nvalue = [0, 1]\nclass = 0", fillcolor="#399de5ff"] ;
221 -> 231 ;
232 [label="Pclass <= 2.5\ngini = 0.365\nsamples = 246\nvalue = [59, 187]\nclass = 0", fillcolor="#399de5af"] ;
0 -> 232 [labeldistance=2.5, labelangle=-45, headlabel="False"] ;
233 [label="Age <= 2.5\ngini = 0.096\nsamples = 139\nvalue = [7, 132]\nclass = 0", fillcolor="#399de5f1"] ;
232 -> 233 ;
234 [label="Fare <= 88.775\ngini = 0.5\nsamples = 2\nvalue = [1, 1]\nclass = 1", fillcolor="#e5813900"] ;
233 -> 234 ;
235 [label="gini = 0.0\nsamples = 1\nvalue = [0, 1]\nclass = 0", fillcolor="#399de5ff"] ;
234 -> 235 ;
236 [label="gini = 0.0\nsamples = 1\nvalue = [1, 0]\nclass = 1", fillcolor="#e58139ff"] ;
234 -> 236 ;
237 [label="Fare <= 26.125\ngini = 0.084\nsamples = 137\nvalue = [6, 131]\nclass = 0", fillcolor="#399de5f3"] ;
233 -> 237 ;
238 [label="Age <= 56.0\ngini = 0.187\nsamples = 48\nvalue = [5, 43]\nclass = 0", fillcolor="#399de5e1"] ;
237 -> 238 ;
239 [label="SibSp <= 0.5\ngini = 0.156\nsamples = 47\nvalue = [4, 43]\nclass = 0", fillcolor="#399de5e7"] ;
238 -> 239 ;
240 [label="Age <= 24.5\ngini = 0.056\nsamples = 35\nvalue = [1, 34]\nclass = 0", fillcolor="#399de5f8"] ;
239 -> 240 ;
241 [label="Age <= 23.5\ngini = 0.18\nsamples = 10\nvalue = [1, 9]\nclass = 0", fillcolor="#399de5e3"] ;
240 -> 241 ;
242 [label="gini = 0.0\nsamples = 7\nvalue = [0, 7]\nclass = 0", fillcolor="#399de5ff"] ;
241 -> 242 ;
243 [label="Parch <= 1.0\ngini = 0.444\nsamples = 3\nvalue = [1, 2]\nclass = 0", fillcolor="#399de57f"] ;
241 -> 243 ;
244 [label="gini = 0.5\nsamples = 2\nvalue = [1, 1]\nclass = 1", fillcolor="#e5813900"] ;
243 -> 244 ;
245 [label="gini = 0.0\nsamples = 1\nvalue = [0, 1]\nclass = 0", fillcolor="#399de5ff"] ;
243 -> 245 ;
246 [label="gini = 0.0\nsamples = 25\nvalue = [0, 25]\nclass = 0", fillcolor="#399de5ff"] ;
240 -> 246 ;
247 [label="Age <= 25.0\ngini = 0.375\nsamples = 12\nvalue = [3, 9]\nclass = 0", fillcolor="#399de5aa"] ;
239 -> 247 ;
248 [label="gini = 0.0\nsamples = 4\nvalue = [0, 4]\nclass = 0", fillcolor="#399de5ff"] ;
247 -> 248 ;
249 [label="Age <= 26.5\ngini = 0.469\nsamples = 8\nvalue = [3, 5]\nclass = 0", fillcolor="#399de566"] ;
247 -> 249 ;
250 [label="gini = 0.0\nsamples = 1\nvalue = [1, 0]\nclass = 1", fillcolor="#e58139ff"] ;
249 -> 250 ;
251 [label="Age <= 28.0\ngini = 0.408\nsamples = 7\nvalue = [2, 5]\nclass = 0", fillcolor="#399de599"] ;
249 -> 251 ;
252 [label="Fare <= 17.429\ngini = 0.5\nsamples = 2\nvalue = [1, 1]\nclass = 1", fillcolor="#e5813900"] ;
251 -> 252 ;
253 [label="gini = 0.0\nsamples = 1\nvalue = [0, 1]\nclass = 0", fillcolor="#399de5ff"] ;
252 -> 253 ;
254 [label="gini = 0.0\nsamples = 1\nvalue = [1, 0]\nclass = 1", fillcolor="#e58139ff"] ;
252 -> 254 ;
255 [label="Age <= 43.0\ngini = 0.32\nsamples = 5\nvalue = [1, 4]\nclass = 0", fillcolor="#399de5bf"] ;
251 -> 255 ;
256 [label="gini = 0.0\nsamples = 3\nvalue = [0, 3]\nclass = 0", fillcolor="#399de5ff"] ;
255 -> 256 ;
257 [label="Fare <= 24.5\ngini = 0.5\nsamples = 2\nvalue = [1, 1]\nclass = 1", fillcolor="#e5813900"] ;
255 -> 257 ;
258 [label="gini = 0.0\nsamples = 1\nvalue = [0, 1]\nclass = 0", fillcolor="#399de5ff"] ;
257 -> 258 ;
259 [label="gini = 0.0\nsamples = 1\nvalue = [1, 0]\nclass = 1", fillcolor="#e58139ff"] ;
257 -> 259 ;
260 [label="gini = 0.0\nsamples = 1\nvalue = [1, 0]\nclass = 1", fillcolor="#e58139ff"] ;
238 -> 260 ;
261 [label="Fare <= 149.035\ngini = 0.022\nsamples = 89\nvalue = [1, 88]\nclass = 0", fillcolor="#399de5fc"] ;
237 -> 261 ;
262 [label="gini = 0.0\nsamples = 76\nvalue = [0, 76]\nclass = 0", fillcolor="#399de5ff"] ;
261 -> 262 ;
263 [label="Fare <= 152.506\ngini = 0.142\nsamples = 13\nvalue = [1, 12]\nclass = 0", fillcolor="#399de5ea"] ;
261 -> 263 ;
264 [label="SibSp <= 0.5\ngini = 0.5\nsamples = 2\nvalue = [1, 1]\nclass = 1", fillcolor="#e5813900"] ;
263 -> 264 ;
265 [label="gini = 0.0\nsamples = 1\nvalue = [0, 1]\nclass = 0", fillcolor="#399de5ff"] ;
264 -> 265 ;
266 [label="gini = 0.0\nsamples = 1\nvalue = [1, 0]\nclass = 1", fillcolor="#e58139ff"] ;
264 -> 266 ;
267 [label="gini = 0.0\nsamples = 11\nvalue = [0, 11]\nclass = 0", fillcolor="#399de5ff"] ;
263 -> 267 ;
268 [label="Fare <= 23.35\ngini = 0.5\nsamples = 107\nvalue = [52, 55]\nclass = 0", fillcolor="#399de50e"] ;
232 -> 268 ;
269 [label="Age <= 37.5\ngini = 0.484\nsamples = 90\nvalue = [37, 53]\nclass = 0", fillcolor="#399de54d"] ;
268 -> 269 ;
270 [label="Fare <= 15.373\ngini = 0.472\nsamples = 84\nvalue = [32, 52]\nclass = 0", fillcolor="#399de562"] ;
269 -> 270 ;
271 [label="Fare <= 13.908\ngini = 0.494\nsamples = 63\nvalue = [28, 35]\nclass = 0", fillcolor="#399de533"] ;
270 -> 271 ;
272 [label="Fare <= 10.798\ngini = 0.472\nsamples = 55\nvalue = [21, 34]\nclass = 0", fillcolor="#399de561"] ;
271 -> 272 ;
273 [label="Fare <= 8.04\ngini = 0.49\nsamples = 49\nvalue = [21, 28]\nclass = 0", fillcolor="#399de540"] ;
272 -> 273 ;
274 [label="Age <= 30.35\ngini = 0.432\nsamples = 38\nvalue = [12, 26]\nclass = 0", fillcolor="#399de589"] ;
273 -> 274 ;
275 [label="Fare <= 6.987\ngini = 0.418\nsamples = 37\nvalue = [11, 26]\nclass = 0", fillcolor="#399de593"] ;
274 -> 275 ;
276 [label="gini = 0.0\nsamples = 1\nvalue = [1, 0]\nclass = 1", fillcolor="#e58139ff"] ;
275 -> 276 ;
277 [label="Fare <= 7.4\ngini = 0.401\nsamples = 36\nvalue = [10, 26]\nclass = 0", fillcolor="#399de59d"] ;
275 -> 277 ;
278 [label="gini = 0.0\nsamples = 4\nvalue = [0, 4]\nclass = 0", fillcolor="#399de5ff"] ;
277 -> 278 ;
279 [label="Age <= 14.5\ngini = 0.43\nsamples = 32\nvalue = [10, 22]\nclass = 0", fillcolor="#399de58b"] ;
277 -> 279 ;
280 [label="gini = 0.0\nsamples = 1\nvalue = [1, 0]\nclass = 1", fillcolor="#e58139ff"] ;
279 -> 280 ;
281 [label="Age <= 17.5\ngini = 0.412\nsamples = 31\nvalue = [9, 22]\nclass = 0", fillcolor="#399de597"] ;
279 -> 281 ;
282 [label="gini = 0.0\nsamples = 3\nvalue = [0, 3]\nclass = 0", fillcolor="#399de5ff"] ;
281 -> 282 ;
283 [label="Parch <= 1.0\ngini = 0.436\nsamples = 28\nvalue = [9, 19]\nclass = 0", fillcolor="#399de586"] ;
281 -> 283 ;
284 [label="Fare <= 7.888\ngini = 0.417\nsamples = 27\nvalue = [8, 19]\nclass = 0", fillcolor="#399de594"] ;
283 -> 284 ;
285 [label="Age <= 18.5\ngini = 0.351\nsamples = 22\nvalue = [5, 17]\nclass = 0", fillcolor="#399de5b4"] ;
284 -> 285 ;
286 [label="gini = 0.0\nsamples = 1\nvalue = [1, 0]\nclass = 1", fillcolor="#e58139ff"] ;
285 -> 286 ;
287 [label="Fare <= 7.802\ngini = 0.308\nsamples = 21\nvalue = [4, 17]\nclass = 0", fillcolor="#399de5c3"] ;
285 -> 287 ;
288 [label="Fare <= 7.6\ngini = 0.375\nsamples = 16\nvalue = [4, 12]\nclass = 0", fillcolor="#399de5aa"] ;
287 -> 288 ;
289 [label="Age <= 26.35\ngini = 0.5\nsamples = 2\nvalue = [1, 1]\nclass = 1", fillcolor="#e5813900"] ;
288 -> 289 ;
290 [label="gini = 0.0\nsamples = 1\nvalue = [0, 1]\nclass = 0", fillcolor="#399de5ff"] ;
289 -> 290 ;
291 [label="gini = 0.0\nsamples = 1\nvalue = [1, 0]\nclass = 1", fillcolor="#e58139ff"] ;
289 -> 291 ;
292 [label="Age <= 21.5\ngini = 0.337\nsamples = 14\nvalue = [3, 11]\nclass = 0", fillcolor="#399de5b9"] ;
288 -> 292 ;
293 [label="Fare <= 7.7\ngini = 0.5\nsamples = 2\nvalue = [1, 1]\nclass = 1", fillcolor="#e5813900"] ;
292 -> 293 ;
294 [label="gini = 0.0\nsamples = 1\nvalue = [0, 1]\nclass = 0", fillcolor="#399de5ff"] ;
293 -> 294 ;
295 [label="gini = 0.0\nsamples = 1\nvalue = [1, 0]\nclass = 1", fillcolor="#e58139ff"] ;
293 -> 295 ;
296 [label="Fare <= 7.763\ngini = 0.278\nsamples = 12\nvalue = [2, 10]\nclass = 0", fillcolor="#399de5cc"] ;
292 -> 296 ;
297 [label="Fare <= 7.744\ngini = 0.18\nsamples = 10\nvalue = [1, 9]\nclass = 0", fillcolor="#399de5e3"] ;
296 -> 297 ;
298 [label="gini = 0.0\nsamples = 2\nvalue = [0, 2]\nclass = 0", fillcolor="#399de5ff"] ;
297 -> 298 ;
299 [label="Age <= 25.85\ngini = 0.219\nsamples = 8\nvalue = [1, 7]\nclass = 0", fillcolor="#399de5db"] ;
297 -> 299 ;
300 [label="gini = 0.0\nsamples = 2\nvalue = [0, 2]\nclass = 0", fillcolor="#399de5ff"] ;
299 -> 300 ;
301 [label="gini = 0.278\nsamples = 6\nvalue = [1, 5]\nclass = 0", fillcolor="#399de5cc"] ;
299 -> 301 ;
302 [label="Age <= 23.5\ngini = 0.5\nsamples = 2\nvalue = [1, 1]\nclass = 1", fillcolor="#e5813900"] ;
296 -> 302 ;
303 [label="gini = 0.0\nsamples = 1\nvalue = [0, 1]\nclass = 0", fillcolor="#399de5ff"] ;
302 -> 303 ;
304 [label="gini = 0.0\nsamples = 1\nvalue = [1, 0]\nclass = 1", fillcolor="#e58139ff"] ;
302 -> 304 ;
305 [label="gini = 0.0\nsamples = 5\nvalue = [0, 5]\nclass = 0", fillcolor="#399de5ff"] ;
287 -> 305 ;
306 [label="Age <= 25.5\ngini = 0.48\nsamples = 5\nvalue = [3, 2]\nclass = 1", fillcolor="#e5813955"] ;
284 -> 306 ;
307 [label="gini = 0.0\nsamples = 2\nvalue = [2, 0]\nclass = 1", fillcolor="#e58139ff"] ;
306 -> 307 ;
308 [label="Age <= 27.5\ngini = 0.444\nsamples = 3\nvalue = [1, 2]\nclass = 0", fillcolor="#399de57f"] ;
306 -> 308 ;
309 [label="gini = 0.0\nsamples = 2\nvalue = [0, 2]\nclass = 0", fillcolor="#399de5ff"] ;
308 -> 309 ;
310 [label="gini = 0.0\nsamples = 1\nvalue = [1, 0]\nclass = 1", fillcolor="#e58139ff"] ;
308 -> 310 ;
311 [label="gini = 0.0\nsamples = 1\nvalue = [1, 0]\nclass = 1", fillcolor="#e58139ff"] ;
283 -> 311 ;
312 [label="gini = 0.0\nsamples = 1\nvalue = [1, 0]\nclass = 1", fillcolor="#e58139ff"] ;
274 -> 312 ;
313 [label="Age <= 19.0\ngini = 0.298\nsamples = 11\nvalue = [9, 2]\nclass = 1", fillcolor="#e58139c6"] ;
273 -> 313 ;
314 [label="Fare <= 10.152\ngini = 0.444\nsamples = 3\nvalue = [1, 2]\nclass = 0", fillcolor="#399de57f"] ;
313 -> 314 ;
315 [label="gini = 0.0\nsamples = 2\nvalue = [0, 2]\nclass = 0", fillcolor="#399de5ff"] ;
314 -> 315 ;
316 [label="gini = 0.0\nsamples = 1\nvalue = [1, 0]\nclass = 1", fillcolor="#e58139ff"] ;
314 -> 316 ;
317 [label="gini = 0.0\nsamples = 8\nvalue = [8, 0]\nclass = 1", fillcolor="#e58139ff"] ;
313 -> 317 ;
318 [label="gini = 0.0\nsamples = 6\nvalue = [0, 6]\nclass = 0", fillcolor="#399de5ff"] ;
272 -> 318 ;
319 [label="Parch <= 1.5\ngini = 0.219\nsamples = 8\nvalue = [7, 1]\nclass = 1", fillcolor="#e58139db"] ;
271 -> 319 ;
320 [label="gini = 0.0\nsamples = 6\nvalue = [6, 0]\nclass = 1", fillcolor="#e58139ff"] ;
319 -> 320 ;
321 [label="Age <= 29.35\ngini = 0.5\nsamples = 2\nvalue = [1, 1]\nclass = 1", fillcolor="#e5813900"] ;
319 -> 321 ;
322 [label="gini = 0.0\nsamples = 1\nvalue = [0, 1]\nclass = 0", fillcolor="#399de5ff"] ;
321 -> 322 ;
323 [label="gini = 0.0\nsamples = 1\nvalue = [1, 0]\nclass = 1", fillcolor="#e58139ff"] ;
321 -> 323 ;
324 [label="Parch <= 3.5\ngini = 0.308\nsamples = 21\nvalue = [4, 17]\nclass = 0", fillcolor="#399de5c3"] ;
270 -> 324 ;
325 [label="SibSp <= 2.5\ngini = 0.255\nsamples = 20\nvalue = [3, 17]\nclass = 0", fillcolor="#399de5d2"] ;
324 -> 325 ;
326 [label="Parch <= 0.5\ngini = 0.188\nsamples = 19\nvalue = [2, 17]\nclass = 0", fillcolor="#399de5e1"] ;
325 -> 326 ;
327 [label="Fare <= 17.05\ngini = 0.408\nsamples = 7\nvalue = [2, 5]\nclass = 0", fillcolor="#399de599"] ;
326 -> 327 ;
328 [label="gini = 0.0\nsamples = 4\nvalue = [0, 4]\nclass = 0", fillcolor="#399de5ff"] ;
327 -> 328 ;
329 [label="Fare <= 20.625\ngini = 0.444\nsamples = 3\nvalue = [2, 1]\nclass = 1", fillcolor="#e581397f"] ;
327 -> 329 ;
330 [label="gini = 0.0\nsamples = 2\nvalue = [2, 0]\nclass = 1", fillcolor="#e58139ff"] ;
329 -> 330 ;
331 [label="gini = 0.0\nsamples = 1\nvalue = [0, 1]\nclass = 0", fillcolor="#399de5ff"] ;
329 -> 331 ;
332 [label="gini = 0.0\nsamples = 12\nvalue = [0, 12]\nclass = 0", fillcolor="#399de5ff"] ;
326 -> 332 ;
333 [label="gini = 0.0\nsamples = 1\nvalue = [1, 0]\nclass = 1", fillcolor="#e58139ff"] ;
325 -> 333 ;
334 [label="gini = 0.0\nsamples = 1\nvalue = [1, 0]\nclass = 1", fillcolor="#e58139ff"] ;
324 -> 334 ;
335 [label="Age <= 55.0\ngini = 0.278\nsamples = 6\nvalue = [5, 1]\nclass = 1", fillcolor="#e58139cc"] ;
269 -> 335 ;
336 [label="gini = 0.0\nsamples = 5\nvalue = [5, 0]\nclass = 1", fillcolor="#e58139ff"] ;
335 -> 336 ;
337 [label="gini = 0.0\nsamples = 1\nvalue = [0, 1]\nclass = 0", fillcolor="#399de5ff"] ;
335 -> 337 ;
338 [label="Fare <= 31.331\ngini = 0.208\nsamples = 17\nvalue = [15, 2]\nclass = 1", fillcolor="#e58139dd"] ;
268 -> 338 ;
339 [label="gini = 0.0\nsamples = 10\nvalue = [10, 0]\nclass = 1", fillcolor="#e58139ff"] ;
338 -> 339 ;
340 [label="Fare <= 32.881\ngini = 0.408\nsamples = 7\nvalue = [5, 2]\nclass = 1", fillcolor="#e5813999"] ;
338 -> 340 ;
341 [label="gini = 0.0\nsamples = 2\nvalue = [0, 2]\nclass = 0", fillcolor="#399de5ff"] ;
340 -> 341 ;
342 [label="gini = 0.0\nsamples = 5\nvalue = [5, 0]\nclass = 1", fillcolor="#e58139ff"] ;
340 -> 342 ;
}